the 0.314845 -0.594966 0.364453 -0.303990 -0.163298 -0.208138 -0.063397 -0.274273 0.008039 0.313427 0.077980 0.230821 -0.303666 0.069646 0.034396 0.713454 0.144248 -0.182218 0.363876 0.619664 -0.351316 0.002414 0.434149 -0.429740 0.368150 -0.709280 -0.076584 0.168682 -0.111134 0.291124 0.056759 0.236357 -0.216234 -0.151878 -0.429654 0.020701 0.152160 -0.012689 -0.365258 -0.284180 -0.031743 0.322464 -0.294811 0.017445 -0.004059 0.215779 -0.119879 -0.232236 -0.321151 0.301774 -0.126148 -0.517174 0.345968 0.640385 -0.217424 0.308738 0.219053 -0.115701 -0.205319 -0.211564 0.195052 -0.465845 0.079989 -0.314120 -0.489292 0.393189 0.506710 0.444550 0.090913 -0.041937 0.019073 -0.211669 -0.068794 -0.324646 0.286798 -0.096603 -0.458527 -0.017360 -0.027033 0.193178 0.239730 0.050892 0.067579 -0.175215 0.044952 0.132419 -0.129821 0.273940 0.560339 0.021715 0.215951 0.731709 0.132121 0.113550 0.430923 0.344183 -0.263545 0.435532 -0.201218 -0.027319
cat 0.059323 -0.071774 0.546308 -0.282250 -0.292215 -0.202724 0.115324 -0.133328 0.325120 -0.003769 0.002497 0.697110 -0.049083 -0.250014 -0.080339 0.656962 0.050699 0.325651 0.189991 0.280331 -0.422233 -0.252327 -0.429337 -0.306573 0.422891 -0.112779 -0.384692 0.431517 -0.197343 0.104964 -0.241473 -0.033319 0.236586 -0.336809 -0.959899 0.141543 0.463270 -0.657689 -0.515152 0.178452 -0.659678 -0.585526 0.452931 0.167292 -0.067777 0.605253 -0.134815 -0.139514 -0.484931 -0.135165 0.629185 -0.065777 -0.061909 0.219177 0.256310 -0.157715 0.317088 -0.415937 -0.115956 -0.010733 0.207422 -0.016551 -0.225655 -0.540570 -0.573039 0.425210 0.626430 0.392440 0.385085 0.351105 -0.002583 -0.172604 0.209032 -0.744746 -0.694634 -0.088395 -0.335705 -0.405569 0.331890 -0.157662 0.535212 0.730012 0.046094 0.592787 -0.222378 0.534556 0.312522 0.216099 0.293962 -0.028408 0.591625 0.110197 0.453025 -0.660972 -0.408600 -0.336284 -0.063036 0.111027 0.029192 -0.250457
dog -0.114096 -0.102626 0.431760 0.021747 -0.399253 -0.203524 0.062092 -0.310188 0.144085 -0.137276 -0.274618 0.232753 0.245553 -0.455979 -0.097894 0.660423 0.108627 0.420843 0.060254 0.164518 -0.591362 0.046800 -0.069537 -0.085940 0.295329 0.086850 -0.253164 0.340061 -0.173502 0.541822 -0.063927 0.013282 0.280864 -0.430121 -0.618015 0.006047 0.736454 -0.565814 -0.564522 0.051047 -0.743035 -0.273086 0.260148 0.235787 -0.231854 0.166720 -0.051007 -0.105907 -0.365965 0.413482 0.584511 -0.233754 -0.009924 0.799682 0.201114 -0.311313 0.338210 -0.463058 -0.172954 -0.144056 0.168950 0.385779 -0.315404 -0.185793 -0.300114 0.039346 0.532138 0.443633 0.144444 0.396992 -0.028586 -0.215226 -0.054013 -0.473587 -0.855594 -0.110481 -0.335076 -0.317416 0.243595 0.079609 0.386621 0.811764 0.229492 0.336278 -0.117511 0.242253 0.260476 0.580248 0.445056 0.187457 0.452599 0.088281 0.274397 -0.911444 -0.087517 -0.275364 -0.030690 0.209870 -0.064232 -0.369611
mouse 0.293615 -0.089513 0.591949 -0.108169 -0.644358 0.302043 -0.446370 -0.068174 0.113503 -0.083947 -0.356902 0.925930 -0.055191 0.170780 0.210832 0.695771 0.049952 0.137970 0.507736 0.130715 -0.308617 -0.276869 -0.671116 -0.398229 0.450077 -0.065819 -0.489564 0.505473 0.005853 -0.088563 0.015622 0.302345 -0.009550 0.199674 -0.845628 -0.210467 0.411119 -0.828412 -0.340261 0.137114 -0.012567 -0.812814 0.283703 0.158880 0.303251 1.055642 -0.453725 0.001357 -0.755281 -0.666770 0.133325 0.053130 0.164631 0.206501 0.218444 -0.021907 -0.152306 -0.030508 -0.089199 0.047365 0.271991 -0.153062 -0.556057 -0.470093 -0.687662 0.316971 0.940907 0.215843 0.410979 0.142853 0.317175 0.316375 0.019545 -0.836125 -0.391712 0.160359 -0.719052 -0.589056 0.210132 -0.530350 0.342901 0.512048 0.248860 1.080666 -0.525411 0.524299 0.673725 0.333587 0.066560 -0.119895 0.258899 -0.447961 0.226928 -0.565133 0.118462 -0.061394 0.223574 0.367440 -0.530028 -0.182413
chased 0.019477 -0.444280 -0.067234 -0.379682 -0.237407 0.121245 -0.179520 -0.000177 -0.049641 0.699746 0.338320 0.583846 -0.242256 -0.284601 0.275821 0.328298 0.441531 0.053385 0.317736 -0.682469 -0.433202 -0.153906 0.463829 -0.335255 0.509641 -0.077755 -0.462519 -0.723281 -0.819537 -0.007947 0.387949 0.138842 -0.539315 -0.411823 -0.365294 0.217958 0.379101 -0.068499 -0.756639 -0.321084 -0.270534 0.402945 0.045626 -0.017152 -0.441407 0.315450 0.177351 0.174292 -0.272286 -0.077677 0.057786 0.065199 0.516371 0.671807 -0.447125 0.130767 0.261543 -0.021387 -0.139410 -0.546264 -0.134295 -0.245857 -0.014457 0.010864 0.263248 0.585154 0.201772 0.258723 0.434683 0.918806 0.138932 0.132853 0.005514 -0.230239 -0.493538 -0.074612 -0.377970 -0.050571 0.462981 -0.273855 0.757058 0.913679 -0.208712 0.818204 0.281431 0.236602 -1.041529 0.402480 0.374696 -0.607841 0.817441 -0.010582 -0.314058 -0.105849 -0.125539 0.568251 -0.677345 -0.365025 -0.095726 -0.280031
cow 0.138112 0.071341 0.676459 -1.137402 -0.428118 -0.930316 -0.105135 0.317054 0.483346 -0.089213 -0.463950 0.171016 0.135046 -0.063123 -0.653842 1.576596 -0.290596 0.087152 0.205985 0.714729 -0.628018 -0.360352 0.005045 0.067674 0.056112 0.894169 -0.927055 0.588997 0.338635 -0.100393 0.152531 0.099612 -0.070435 -0.840815 -1.415868 -0.016303 0.757059 -1.481942 -0.245393 -0.250295 -0.803025 -0.867584 0.186822 0.373825 -0.315095 0.342362 -0.130768 -0.244208 -0.962180 0.135572 1.032961 0.934046 -0.137690 0.374317 1.070053 -0.229091 0.588159 0.747545 -0.937962 -0.361246 0.568733 0.159517 -0.209855 -0.292356 -0.195859 0.267639 0.164742 0.428512 0.379074 1.102483 0.090937 0.817612 -0.663076 -1.000016 -0.146989 -1.225777 -0.500514 -0.500074 0.662044 0.681423 -0.739576 0.991657 0.184532 0.137659 -0.644558 -0.271512 0.545444 0.429254 0.738553 0.159081 -0.440334 -0.621348 -0.450153 -0.051690 0.112991 0.098917 -0.711512 0.828785 -0.303167 -0.225888